#ifndef MEMDATA_CONV1_H
#define MEMDATA_CONV1_H

#include "configSNN.h"

namespace PARAM_CONV1 {

// ==========================================
// Float conv1 weights from trained PyTorch model
// shape = [32][3]
// ==========================================
static float conv1_weights[CONV1_OFM_CH][CONV1_IFM_CH] = {
    { 0.2593326271f, -1.1401144266f, -0.0903638005f },
    { 0.1707353294f, -1.0067069530f, 0.9185927510f },
    { 0.0979349688f, 0.9523987174f, -0.8792172670f },
    { 1.2237156630f, 0.0232306384f, 0.0556836464f },
    { 0.3074662685f, 0.4921770692f, 0.4750178754f },
    { -0.0287591256f, 1.3031420708f, -1.2264055014f },
    { 0.1726070493f, 1.0070058107f, 1.2381150723f },
    { -0.0445239209f, 0.0382266119f, 1.4426275492f },
    { 0.1734930128f, -0.7896544337f, 0.1247650683f },
    { 0.5809034705f, -0.2324670851f, 1.0341902971f },
    { 0.0039238976f, -1.0488177538f, -1.0744247437f },
    { 0.2847391367f, 0.3380189240f, -0.4901186526f },
    { 0.4274448156f, 1.2318128347f, 0.1468918473f },
    { 0.1118394583f, 1.1051899195f, 0.6749348640f },
    { 0.0355791114f, -1.0920666456f, -0.1625571549f },
    { 1.1342387199f, -0.1454786360f, -0.5612332225f },
    { 0.4415159523f, 0.0013539139f, 0.0079362132f },
    { 0.1399863064f, -0.6274228692f, -0.7253913879f },
    { -1.3732510805f, 0.0643027425f, 0.0103469444f },
    { 0.8226291537f, -0.0344921090f, -0.0122840973f },
    { 0.9050998092f, -0.6680878997f, -0.1069342494f },
    { 0.0993611142f, 0.2791181207f, 0.9562478662f },
    { -0.1901029199f, -0.0463794656f, 0.1888047159f },
    { -2.1546509266f, -0.0585292466f, 0.0033770425f },
    { 0.2618131042f, -0.6436555386f, 0.5379530787f },
    { 0.2742316127f, 0.8106234670f, -0.1450403929f },
    { 0.3735835850f, -0.1314336210f, 0.6585218310f },
    { 0.4389476776f, 0.0588094369f, -1.3974335194f },
    { 0.3174504042f, -0.9307520390f, -0.9002777338f },
    { 0.2548084855f, 0.0025813398f, -0.8539535999f },
    { -0.8550152183f, 0.0031116595f, 0.0251889955f },
    { 0.0518818870f, -0.8823799491f, 0.8633670807f }
};

// ==========================================
// Float conv1 bias from trained PyTorch model
// shape = [32]
// ==========================================
static float conv1_bias[CONV1_OFM_CH] = {
    0.3439024091f,
    0.0335795619f,
    -0.5316193104f,
    1.4365769625f,
    -0.5119150281f,
    0.4626262188f,
    0.1233163700f,
    0.3763083518f,
    1.2037949562f,
    0.6163799167f,
    0.3264393210f,
    -0.2475200742f,
    0.3967834711f,
    -0.6559041739f,
    -0.3253042400f,
    1.4197384119f,
    0.3532730937f,
    -0.5989455581f,
    0.4601170421f,
    0.3855457902f,
    -0.3141092956f,
    -0.5524464846f,
    1.0320987701f,
    -0.2218086869f,
    -0.6925559640f,
    -0.4493802488f,
    -0.2054196000f,
    0.2417672426f,
    -0.4005732834f,
    -0.4680862129f,
    0.9058437943f,
    -0.4144172668f
};

} // namespace PARAM_CONV1

#endif
